digraph Tree {
node [shape=box, style="filled, rounded", color="black", fontname=helvetica] ;
edge [fontname=helvetica] ;
0 [label="sepal length (cm) <= 5.45\ngini = 0.67\nsamples = 98\nvalue = [50, 50, 50]\nclass = setosa", fillcolor="#ffffff"] ;
1 [label="petal length (cm) <= 2.6\ngini = 0.26\nsamples = 33\nvalue = [46, 5, 3]\nclass = setosa", fillcolor="#e99659"] ;
0 -> 1 [labeldistance=2.5, labelangle=45, headlabel="True"] ;
2 [label="gini = 0.0\nsamples = 29\nvalue = [46, 0, 0]\nclass = setosa", fillcolor="#e58139"] ;
1 -> 2 ;
3 [label="petal width (cm) <= 1.35\ngini = 0.47\nsamples = 4\nvalue = [0, 5, 3]\nclass = versicolor", fillcolor="#b0f5cd"] ;
1 -> 3 ;
4 [label="gini = 0.0\nsamples = 3\nvalue = [0, 5, 0]\nclass = versicolor", fillcolor="#39e581"] ;
3 -> 4 ;
5 [label="gini = 0.0\nsamples = 1\nvalue = [0, 0, 3]\nclass = virginica", fillcolor="#8139e5"] ;
3 -> 5 ;
6 [label="sepal length (cm) <= 7.1\ngini = 0.54\nsamples = 65\nvalue = [4, 45, 47]\nclass = virginica", fillcolor="#faf7fe"] ;
0 -> 6 [labeldistance=2.5, labelangle=-45, headlabel="False"] ;
7 [label="petal width (cm) <= 1.75\ngini = 0.53\nsamples = 58\nvalue = [4, 45, 33]\nclass = versicolor", fillcolor="#cff9e0"] ;
6 -> 7 ;
8 [label="petal length (cm) <= 2.65\ngini = 0.25\nsamples = 33\nvalue = [4, 44, 3]\nclass = versicolor", fillcolor="#56e994"] ;
7 -> 8 ;
9 [label="gini = 0.0\nsamples = 3\nvalue = [4, 0, 0]\nclass = setosa", fillcolor="#e58139"] ;
8 -> 9 ;
10 [label="petal width (cm) <= 1.35\ngini = 0.12\nsamples = 30\nvalue = [0, 44, 3]\nclass = versicolor", fillcolor="#46e78a"] ;
8 -> 10 ;
11 [label="gini = 0.0\nsamples = 16\nvalue = [0, 26, 0]\nclass = versicolor", fillcolor="#39e581"] ;
10 -> 11 ;
12 [label="petal length (cm) <= 5.05\ngini = 0.24\nsamples = 14\nvalue = [0, 18, 3]\nclass = versicolor", fillcolor="#5ae996"] ;
10 -> 12 ;
13 [label="sepal width (cm) <= 2.5\ngini = 0.1\nsamples = 12\nvalue = [0, 18, 1]\nclass = versicolor", fillcolor="#44e688"] ;
12 -> 13 ;
14 [label="petal length (cm) <= 4.75\ngini = 0.5\nsamples = 2\nvalue = [0, 1, 1]\nclass = versicolor", fillcolor="#ffffff"] ;
13 -> 14 ;
15 [label="gini = 0.0\nsamples = 1\nvalue = [0, 1, 0]\nclass = versicolor", fillcolor="#39e581"] ;
14 -> 15 ;
16 [label="gini = 0.0\nsamples = 1\nvalue = [0, 0, 1]\nclass = virginica", fillcolor="#8139e5"] ;
14 -> 16 ;
17 [label="gini = 0.0\nsamples = 10\nvalue = [0, 17, 0]\nclass = versicolor", fillcolor="#39e581"] ;
13 -> 17 ;
18 [label="gini = 0.0\nsamples = 2\nvalue = [0, 0, 2]\nclass = virginica", fillcolor="#8139e5"] ;
12 -> 18 ;
19 [label="petal length (cm) <= 4.85\ngini = 0.06\nsamples = 25\nvalue = [0, 1, 30]\nclass = virginica", fillcolor="#8540e6"] ;
7 -> 19 ;
20 [label="sepal length (cm) <= 6.05\ngini = 0.5\nsamples = 2\nvalue = [0, 1, 1]\nclass = versicolor", fillcolor="#ffffff"] ;
19 -> 20 ;
21 [label="gini = 0.0\nsamples = 1\nvalue = [0, 1, 0]\nclass = versicolor", fillcolor="#39e581"] ;
20 -> 21 ;
22 [label="gini = 0.0\nsamples = 1\nvalue = [0, 0, 1]\nclass = virginica", fillcolor="#8139e5"] ;
20 -> 22 ;
23 [label="gini = 0.0\nsamples = 23\nvalue = [0, 0, 29]\nclass = virginica", fillcolor="#8139e5"] ;
19 -> 23 ;
24 [label="gini = 0.0\nsamples = 7\nvalue = [0, 0, 14]\nclass = virginica", fillcolor="#8139e5"] ;
6 -> 24 ;
}